[array([[[[-0.08323673, -0.19333939,  0.04721852,  0.07240544,
           0.00120099,  0.13545221, -0.04490509,  0.02616038,
          -0.04342215, -0.17997521, -0.05399211, -0.04872616,
          -0.01497191,  0.00504808, -0.06976409, -0.01520151]],

        [[ 0.21842185,  0.12708612, -0.15873307,  0.01347486,
          -0.11300887,  0.00803535,  0.11838824, -0.02502473,
           0.15124106,  0.09094088, -0.09103315,  0.08785296,
          -0.17166445,  0.13565655,  0.00337307,  0.17623381]],

        [[-0.17022365, -0.19688097,  0.17400132, -0.11776533,
           0.16202569,  0.05945365,  0.22504792, -0.13124909,
           0.0479556 ,  0.00886601, -0.03232735,  0.20519423,
           0.12437827, -0.14614387,  0.10443583,  0.12120619]]],


       [[[ 0.18637742,  0.0108276 ,  0.07199647, -0.10922518,
           0.11131319,  0.17345202,  0.01421814,  0.14082885,
          -0.13036747,  0.05029183,  0.1004404 , -0.1266357 ,
           0.01315897, -0.16030206, -0.05353617, -0.11476534]],

        [[ 0.05344952, -0.19807108,  0.14266868,  0.20244285,
          -0.13804112, -0.08381771, -0.17368351,  0.09879738,
           0.07540728, -0.01319701,  0.1463915 , -0.04619682,
           0.11675721, -0.01104502,  0.02921644,  0.07666164]],

        [[ 0.12981588,  0.17531191, -0.07771508,  0.19436881,
          -0.00781285, -0.16432771, -0.03029209,  0.00324564,
           0.20423189, -0.10189575, -0.13609733,  0.08845767,
          -0.05037866, -0.17723076,  0.04615133, -0.09481683]]],


       [[[-0.10891625, -0.13569286, -0.16215235, -0.01752925,
          -0.18540098, -0.07930736, -0.19561413,  0.03083472,
          -0.05246443, -0.2047792 , -0.05360078,  0.12510411,
          -0.07512928, -0.01295015, -0.1066948 , -0.02282396]],

        [[-0.07173494, -0.00144261,  0.1120223 ,  0.07801341,
           0.1699087 ,  0.19087718, -0.03787117,  0.18334436,
           0.04485368, -0.10391876,  0.0330255 ,  0.16797394,
          -0.03864279, -0.09081779,  0.01374342, -0.17220637]],

        [[ 0.1732034 , -0.02336824, -0.00315361,  0.03356849,
          -0.09433383,  0.15646654, -0.01209124,  0.04465178,
           0.08040045,  0.02793121, -0.0005307 ,  0.10202297,
          -0.00224286,  0.04417996, -0.17665868,  0.19825   ]]]],
      dtype=float32), array([ 0.01396768,  0.01489176,  0.01434386,  0.01380411,  0.01329542,
        0.00107868,  0.01114932,  0.01240413,  0.00010702,  0.02377558,
        0.00727284, -0.00113518,  0.00056835,  0.0011164 ,  0.02189641,
        0.00981696], dtype=float32), array([1.0289404, 1.0224112, 1.0241272, 1.0254859, 1.0171591, 1.0254928,
       1.0374713, 1.0274478, 1.024931 , 1.025899 , 1.0287944, 1.0250233,
       1.0201532, 1.032169 , 1.0469228, 1.0290381], dtype=float32), array([ 0.01394771, -0.01662565,  0.01372178,  0.01388019,  0.0151111 ,
       -0.0014614 , -0.00665592,  0.01152202, -0.00943056, -0.00942341,
       -0.01376732, -0.00474261,  0.01196485, -0.01241933,  0.02062352,
        0.00981284], dtype=float32), array([0., 0., 0., 0., 0., 0., 0., 0., 0., 0., 0., 0., 0., 0., 0., 0.],
      dtype=float32), array([1., 1., 1., 1., 1., 1., 1., 1., 1., 1., 1., 1., 1., 1., 1., 1.],
      dtype=float32), array([[[[-0.03584126,  0.04986944, -0.04452713, ..., -0.05453931,
           0.04081557,  0.03243375],
         [-0.10893614, -0.10935621, -0.11724673, ...,  0.08025443,
           0.02441969,  0.03796508],
         [ 0.08590681,  0.09703476, -0.00136146, ...,  0.06952089,
           0.0852766 , -0.02470786],
         ...,
         [ 0.0115836 , -0.07254625, -0.01624534, ...,  0.06799111,
          -0.10424243,  0.018502  ],
         [ 0.09209337, -0.00080029, -0.01302637, ...,  0.05949395,
          -0.11657646, -0.01145775],
         [-0.10005927, -0.0198567 ,  0.00758429, ..., -0.06003334,
          -0.07308081, -0.11320576]],

        [[-0.01538863, -0.06691951,  0.05853234, ...,  0.08719968,
          -0.02478336,  0.08348814],
         [ 0.06580732, -0.03945207,  0.06848814, ..., -0.0390955 ,
          -0.05515109,  0.03843946],
         [ 0.13332309, -0.02881571, -0.03442567, ..., -0.07461438,
          -0.03337017, -0.06194809],
         ...,
         [-0.1366266 ,  0.06952357, -0.03750796, ...,  0.03328308,
           0.06410015, -0.08063322],
         [-0.12277213, -0.00085238, -0.10930862, ..., -0.11454341,
          -0.0131744 ,  0.06150156],
         [ 0.01135262,  0.08315534, -0.0695734 , ...,  0.00478241,
          -0.01740135, -0.12197009]],

        [[-0.08885996, -0.01744204, -0.07114965, ...,  0.08211327,
          -0.02135607, -0.02055446],
         [-0.02609976, -0.09886938,  0.00243203, ...,  0.08455086,
           0.0266958 ,  0.11476614],
         [-0.0640908 , -0.01475511,  0.05480729, ..., -0.0824147 ,
          -0.03205702, -0.05005318],
         ...,
         [ 0.07352193,  0.06641982, -0.05778966, ...,  0.08793917,
           0.05905371, -0.01864729],
         [ 0.0544146 , -0.10745663,  0.01403837, ...,  0.03173362,
           0.11153574,  0.06914646],
         [ 0.11143894,  0.0315583 , -0.11943864, ..., -0.0280416 ,
          -0.03900622, -0.05702123]]],


       [[[-0.01000654,  0.06935526, -0.05087473, ...,  0.03494101,
           0.05519967,  0.02087375],
         [-0.11737536,  0.07820273,  0.04033893, ...,  0.01012719,
          -0.08863814,  0.07593288],
         [ 0.08338514,  0.10210916,  0.05980863, ..., -0.10286603,
           0.12125228,  0.05598912],
         ...,
         [-0.05830621,  0.08277982,  0.09800123, ...,  0.03332346,
           0.04445102,  0.05837394],
         [ 0.00719989, -0.0264186 , -0.11780748, ...,  0.01455505,
          -0.06221829, -0.02042537],
         [-0.06035173,  0.045382  , -0.08948138, ..., -0.05704709,
           0.11075729, -0.05672841]],

        [[-0.08774664,  0.07748115,  0.13141976, ...,  0.09015565,
           0.09140123,  0.03066403],
         [-0.05832531,  0.04248777, -0.04333224, ..., -0.06839754,
           0.00142728, -0.10760245],
         [ 0.025925  ,  0.13614382,  0.05387602, ...,  0.09227093,
           0.04368557, -0.02324792],
         ...,
         [ 0.01385995,  0.03422496,  0.0719015 , ..., -0.11559938,
          -0.07453175,  0.0059685 ],
         [-0.03042818, -0.06294741,  0.06311125, ..., -0.09990429,
           0.00102667, -0.08884418],
         [ 0.11980636,  0.02152537,  0.08871526, ..., -0.02101598,
          -0.04650391,  0.0797867 ]],

        [[ 0.10789246, -0.01312404,  0.05840532, ...,  0.09761985,
          -0.05746117,  0.1308554 ],
         [ 0.04615287, -0.04651887, -0.11040404, ..., -0.04671987,
           0.05383234, -0.0125457 ],
         [-0.03286509,  0.04009749, -0.07611834, ..., -0.08034664,
           0.06540299, -0.0455718 ],
         ...,
         [-0.04297828, -0.03375871,  0.05709311, ..., -0.0407793 ,
          -0.01083446, -0.12587123],
         [ 0.00771679,  0.04388323,  0.01517107, ...,  0.03226927,
          -0.07953634,  0.03863211],
         [-0.09446667, -0.05286394, -0.01328077, ..., -0.07686884,
           0.0231571 , -0.02775765]]],


       [[[ 0.02893154,  0.0201728 ,  0.10654568, ..., -0.02150889,
          -0.03568377,  0.03107799],
         [ 0.05462883, -0.02087291, -0.06182128, ...,  0.0137788 ,
           0.08432922,  0.03658957],
         [-0.06073459, -0.04697898,  0.08115899, ..., -0.00840398,
          -0.0370621 , -0.03735307],
         ...,
         [ 0.00462535, -0.08737013,  0.08151724, ..., -0.07491963,
          -0.04102501, -0.01617327],
         [-0.03355815, -0.00734784, -0.04896789, ..., -0.05122683,
           0.05421569,  0.05315812],
         [-0.03681371, -0.06277234,  0.02134984, ...,  0.03240858,
           0.0555128 ,  0.05058588]],

        [[-0.05779829,  0.02747463, -0.02034714, ...,  0.12970552,
           0.0631828 , -0.06651244],
         [-0.09334405,  0.02357679,  0.00462044, ..., -0.06128956,
          -0.06042053, -0.0699004 ],
         [ 0.0922479 ,  0.00509477, -0.00906272, ...,  0.04382155,
          -0.06563158,  0.12132992],
         ...,
         [-0.10641457,  0.05479024, -0.04425219, ...,  0.02883728,
          -0.00694869, -0.0609354 ],
         [ 0.07839797,  0.07780457,  0.11220853, ...,  0.05911757,
           0.02439116, -0.05465123],
         [-0.0517226 ,  0.09727299,  0.06981357, ...,  0.07130536,
           0.13119605, -0.09245411]],

        [[ 0.11663985,  0.12613878,  0.00371524, ...,  0.09228177,
          -0.06160142,  0.13139743],
         [-0.07282934,  0.0002324 ,  0.05083197, ..., -0.07548797,
           0.10190614,  0.0350193 ],
         [-0.02320246,  0.06393688,  0.01732709, ..., -0.0713861 ,
           0.11151139, -0.00403491],
         ...,
         [ 0.04432051, -0.08889308, -0.02536664, ..., -0.11996786,
           0.07455767,  0.06582654],
         [ 0.07205893, -0.06753998,  0.08015777, ..., -0.02416521,
           0.02928726, -0.02186776],
         [ 0.02570389,  0.0876397 , -0.00388218, ..., -0.07637777,
           0.12369208,  0.07759332]]]], dtype=float32), array([ 0.00856398,  0.00653682,  0.01371335,  0.009682  , -0.00571429,
        0.00918457,  0.01500984, -0.00910708,  0.01053518,  0.01174244,
        0.01243511,  0.00751239, -0.00556271,  0.01139903,  0.0022019 ,
        0.00321234,  0.00072975,  0.00563966,  0.01366204,  0.01731151,
        0.02020707,  0.01218249,  0.00451399,  0.01861609,  0.00611074,
        0.01990539,  0.01146557,  0.01026707,  0.01760495,  0.00119837,
        0.00962549,  0.00068865], dtype=float32), array([1.0240657, 1.0224335, 1.0260313, 1.0169047, 1.0310434, 1.0210288,
       1.0332459, 1.0244323, 1.02273  , 1.0252204, 1.0288023, 1.0192392,
       1.0219673, 1.0204571, 1.0258881, 1.0267266, 1.0276277, 1.0202634,
       1.023906 , 1.02194  , 1.0405461, 1.0447438, 1.0361937, 1.0377734,
       1.016767 , 1.0382487, 1.0232439, 1.0303144, 1.0267568, 1.0190952,
       1.0243183, 1.0190649], dtype=float32), array([ 0.00823846,  0.00276038,  0.00637322, -0.00742798,  0.00257091,
        0.008404  , -0.00190178, -0.00554208,  0.00613854, -0.00574119,
       -0.00769109,  0.00636763, -0.01067992,  0.01166967, -0.0091176 ,
        0.01215496, -0.00719128,  0.00507251,  0.01077117, -0.00483523,
       -0.00219984, -0.00618342, -0.00361223,  0.00339603, -0.00332427,
       -0.00628457,  0.00905229,  0.00415454, -0.00207569, -0.00676822,
        0.00888991, -0.00057437], dtype=float32), array([0., 0., 0., 0., 0., 0., 0., 0., 0., 0., 0., 0., 0., 0., 0., 0., 0.,
       0., 0., 0., 0., 0., 0., 0., 0., 0., 0., 0., 0., 0., 0., 0.],
      dtype=float32), array([1., 1., 1., 1., 1., 1., 1., 1., 1., 1., 1., 1., 1., 1., 1., 1., 1.,
       1., 1., 1., 1., 1., 1., 1., 1., 1., 1., 1., 1., 1., 1., 1.],
      dtype=float32), array([[[[-0.00337584, -0.00092647,  0.07276553, ..., -0.03770424,
           0.10777626,  0.08955518],
         [-0.03343146,  0.04702484, -0.02672538, ...,  0.04889279,
          -0.09095673, -0.05737565],
         [-0.02078956, -0.08026517, -0.04302744, ..., -0.0910767 ,
           0.08806104, -0.02604838],
         ...,
         [ 0.05375808,  0.01890835, -0.03039077, ..., -0.01922303,
           0.02939896,  0.06388676],
         [ 0.06186402, -0.00943928,  0.05668344, ...,  0.06198344,
           0.06285763,  0.0041149 ],
         [-0.071849  , -0.08223615,  0.08437745, ..., -0.08612572,
          -0.03222467,  0.05858663]],

        [[ 0.06288354, -0.00124838,  0.00058335, ..., -0.06770257,
           0.09482276,  0.10787692],
         [-0.02968443, -0.01611241, -0.02845657, ...,  0.03316856,
           0.10827366, -0.01878915],
         [ 0.08585215,  0.00181305,  0.10253959, ..., -0.07413836,
          -0.01617968,  0.0888526 ],
         ...,
         [ 0.08722351,  0.07082379,  0.02477719, ...,  0.1078425 ,
          -0.02024416,  0.05420042],
         [ 0.03485631,  0.02714808, -0.08252379, ..., -0.06233806,
          -0.00919719, -0.07492881],
         [ 0.10724755, -0.07637219, -0.01119011, ..., -0.06080561,
          -0.07464403,  0.04998583]],

        [[ 0.00530321, -0.03066687,  0.02459776, ...,  0.03703169,
          -0.07796069, -0.06689141],
         [ 0.03890417,  0.06983281,  0.08474784, ...,  0.05804639,
           0.10304417,  0.09245127],
         [ 0.0582276 , -0.04020197, -0.03629921, ...,  0.01690351,
           0.08652908, -0.06041504],
         ...,
         [-0.07437094,  0.09498487, -0.07570418, ...,  0.02296293,
           0.03343842, -0.01435972],
         [ 0.0944804 , -0.03692865, -0.02266201, ...,  0.03029685,
           0.07191389,  0.04193643],
         [ 0.01684809,  0.07016331, -0.04954199, ...,  0.06648535,
           0.04420537,  0.06944547]]],


       [[[ 0.10725875,  0.0525116 ,  0.00961327, ..., -0.08226453,
          -0.03115115, -0.06411086],
         [ 0.0816844 , -0.00146746, -0.08163884, ...,  0.04547119,
           0.00181897, -0.0104275 ],
         [ 0.05647091, -0.06062232,  0.07618817, ..., -0.03936643,
           0.08754644,  0.05721541],
         ...,
         [ 0.06172384,  0.06828336,  0.10799212, ..., -0.04891092,
           0.01247843,  0.02337327],
         [ 0.09156185,  0.02031394,  0.04236497, ...,  0.03888634,
           0.00134114,  0.10385256],
         [ 0.06043788,  0.00474309,  0.00318052, ...,  0.07983314,
          -0.00254542,  0.03850619]],

        [[ 0.05735781, -0.06794863, -0.04187378, ..., -0.04286379,
           0.048005  ,  0.09703029],
         [ 0.06237287, -0.08869556,  0.00239332, ..., -0.0141879 ,
           0.07387819, -0.06765249],
         [ 0.06326692,  0.0878472 ,  0.04924176, ..., -0.04627015,
          -0.03251605, -0.02723837],
         ...,
         [-0.06532896, -0.0988699 ,  0.11603552, ...,  0.11275813,
          -0.06017345,  0.02898073],
         [ 0.02493473, -0.04213218,  0.01184583, ...,  0.09105718,
          -0.05495855,  0.03497947],
         [ 0.10930159, -0.05172651,  0.06080883, ..., -0.06724059,
          -0.00668235, -0.07540666]],

        [[ 0.09059745,  0.04781107,  0.02315945, ..., -0.00763056,
          -0.04845325,  0.09122992],
         [ 0.04304857,  0.06659446, -0.08672049, ..., -0.06218824,
           0.03253179,  0.06316154],
         [-0.00789901, -0.08355769, -0.07046329, ..., -0.07499414,
          -0.06617586,  0.08202156],
         ...,
         [ 0.10520178, -0.01262747, -0.00239075, ...,  0.05044255,
          -0.03133196,  0.00796199],
         [-0.03927361,  0.07633052,  0.00088038, ..., -0.02697035,
           0.03847899,  0.01072495],
         [-0.01436626,  0.0372845 ,  0.04991438, ..., -0.05425902,
           0.00865029,  0.10168234]]],


       [[[-0.04364695, -0.0683753 , -0.07627812, ...,  0.07759223,
           0.02466884,  0.05672898],
         [ 0.10024645,  0.05744902, -0.05752411, ...,  0.07184315,
          -0.08224516, -0.06525482],
         [-0.00756488,  0.03229014, -0.02568897, ..., -0.06011183,
          -0.04958979, -0.05999537],
         ...,
         [ 0.04977911,  0.08099012,  0.10307366, ..., -0.0934289 ,
          -0.01110046,  0.03406786],
         [-0.01344641,  0.05266168,  0.006312  , ...,  0.05148063,
          -0.0627111 , -0.00268397],
         [ 0.02739674, -0.00260052,  0.08375008, ...,  0.00898814,
          -0.07742356, -0.1050558 ]],

        [[-0.09069494, -0.00738389, -0.04741387, ...,  0.03273167,
          -0.02951534, -0.06781599],
         [ 0.01715581, -0.07583509,  0.02266015, ..., -0.08870664,
          -0.03380286,  0.09234615],
         [ 0.03159961,  0.10230562, -0.0554495 , ...,  0.08919902,
           0.03416591,  0.06087082],
         ...,
         [-0.04054772, -0.04381717, -0.05452924, ...,  0.0779532 ,
          -0.03836977,  0.04373494],
         [ 0.05692482,  0.0263455 , -0.07588016, ...,  0.09880759,
           0.04068994,  0.01278   ],
         [ 0.09952795, -0.06124461, -0.05988306, ...,  0.07353593,
          -0.11474027, -0.03958854]],

        [[-0.01471659,  0.06503171, -0.09456048, ..., -0.001905  ,
           0.00160608,  0.05030349],
         [-0.07564688, -0.02729751, -0.01574245, ..., -0.05519703,
           0.05430274, -0.0212215 ],
         [ 0.07645857,  0.00731655, -0.1070654 , ..., -0.06566976,
          -0.09507394, -0.07623231],
         ...,
         [ 0.02211947,  0.01330815, -0.04629182, ...,  0.0320684 ,
           0.03364361,  0.1135064 ],
         [-0.05763476,  0.11745615,  0.02656049, ..., -0.00525067,
          -0.06572542, -0.0280399 ],
         [ 0.0658337 , -0.02123864, -0.03972568, ...,  0.03334478,
          -0.08909395,  0.02716368]]]], dtype=float32), array([-7.4894575e-04,  1.2790249e-02, -4.7840090e-03,  7.4992785e-03,
        1.0507617e-02,  3.5297000e-03,  8.4604230e-03, -3.9250171e-03,
        8.9470241e-03,  8.3025647e-03,  6.8205590e-03,  8.3405999e-03,
        8.7898402e-03,  3.5917370e-03,  1.4213756e-02,  1.3598679e-02,
       -1.7876140e-05,  1.1207661e-02,  6.1766924e-03,  1.1676534e-02,
       -5.5715567e-03,  9.7970525e-03,  8.4195333e-03,  1.0591705e-02,
        9.7592566e-03,  1.0667453e-02,  1.1164609e-02,  9.9482655e-04,
       -3.3448052e-03,  8.7097386e-04,  4.3239640e-03,  6.1715152e-03],
      dtype=float32), array([1.0178084, 1.0336511, 1.0238931, 1.019176 , 1.0169401, 1.0305581,
       1.0264808, 1.0170677, 1.0244353, 1.0226952, 1.0173386, 1.0227857,
       1.0208775, 1.0215449, 1.0265942, 1.0237184, 1.0227425, 1.0246793,
       1.0185673, 1.0380503, 1.0255057, 1.0220884, 1.0209972, 1.0148748,
       1.0208701, 1.0379722, 1.0357634, 1.0314552, 1.0268357, 1.014079 ,
       1.0269195, 1.019591 ], dtype=float32), array([-0.00542892, -0.00304846, -0.00952657,  0.00764795,  0.00914983,
       -0.00758967,  0.00617304, -0.00401556,  0.00609879,  0.00136791,
        0.00648366,  0.00710051,  0.00138809,  0.001412  ,  0.0091094 ,
        0.01132396, -0.00065621,  0.00685323,  0.0050626 ,  0.00561482,
       -0.00434423,  0.00993898,  0.00923606,  0.01032708,  0.00951288,
       -0.00136   ,  0.00112051, -0.00291986, -0.00554449, -0.0026125 ,
        0.00148629,  0.00616162], dtype=float32), array([0., 0., 0., 0., 0., 0., 0., 0., 0., 0., 0., 0., 0., 0., 0., 0., 0.,
       0., 0., 0., 0., 0., 0., 0., 0., 0., 0., 0., 0., 0., 0., 0.],
      dtype=float32), array([1., 1., 1., 1., 1., 1., 1., 1., 1., 1., 1., 1., 1., 1., 1., 1., 1.,
       1., 1., 1., 1., 1., 1., 1., 1., 1., 1., 1., 1., 1., 1., 1.],
      dtype=float32), array([[[[-2.04600282e-02, -4.71594371e-02,  4.41180803e-02, ...,
           3.09739336e-02,  8.98541808e-02,  3.88262905e-02],
         [ 1.30768549e-02,  1.35274436e-02, -3.21898051e-02, ...,
          -5.60595319e-02, -6.60585985e-02,  2.15033796e-02],
         [-8.41365457e-02,  5.23544066e-02, -4.11742181e-03, ...,
           8.33917931e-02,  7.41173774e-02, -6.23466372e-02],
         ...,
         [ 6.01345859e-02, -7.19192252e-02, -5.37581146e-02, ...,
           4.75931205e-02, -1.86817907e-02, -5.34892790e-02],
         [-7.31664076e-02, -6.15833215e-02, -8.56294632e-02, ...,
           7.93810412e-02,  7.56292120e-02, -4.99509610e-02],
         [ 2.35184114e-02,  5.29316366e-02,  5.00810216e-04, ...,
           8.50226060e-02,  1.49240792e-02,  5.08423001e-02]],

        [[-7.09215626e-02,  4.92631011e-02,  6.98455051e-02, ...,
          -7.64279813e-03,  8.37298930e-02,  5.92716485e-02],
         [-3.31345834e-02, -3.69742885e-02,  7.82639310e-02, ...,
           8.68296474e-02, -3.21663171e-02, -7.18497038e-02],
         [ 7.21359476e-02, -2.29339246e-02,  2.22464874e-02, ...,
          -4.66243178e-02,  2.97750775e-02,  8.42538998e-02],
         ...,
         [-6.79130778e-02, -6.57228455e-02, -6.37306571e-02, ...,
          -4.73461151e-02,  7.66782537e-02, -5.71711697e-02],
         [-4.55965586e-02,  6.07110485e-02, -2.20505875e-02, ...,
           1.33578805e-02, -1.10613080e-02,  7.92036802e-02],
         [ 8.40161443e-02, -5.28841205e-02,  4.96332422e-02, ...,
          -2.98896395e-02,  2.48756763e-02,  7.40370676e-02]],

        [[ 2.78050471e-02, -4.47410643e-02,  6.78169262e-03, ...,
           3.29758897e-02,  9.13554803e-02, -4.29436974e-02],
         [ 4.08797227e-02,  1.91153996e-02,  6.34693205e-02, ...,
           5.05312942e-02, -1.12513797e-02, -1.29794324e-04],
         [ 1.96485911e-02, -2.82483660e-02, -3.55244391e-02, ...,
           7.47669190e-02,  1.59186050e-02,  9.75087099e-03],
         ...,
         [-5.47848791e-02, -4.53405343e-02, -6.81214109e-02, ...,
          -6.55366331e-02,  1.13321012e-02,  5.01777232e-02],
         [-7.33104870e-02,  5.79504445e-02,  7.92867616e-02, ...,
          -3.35313194e-02, -1.79972928e-02, -3.74503881e-02],
         [ 1.80486459e-02,  2.28595808e-02, -1.19603993e-02, ...,
          -2.57407930e-02, -3.27180065e-02,  5.65470895e-03]]],


       [[[ 6.08286448e-02, -9.53250974e-02,  2.74583208e-03, ...,
           2.79630478e-02,  4.30701533e-04, -1.56548619e-02],
         [-5.84402941e-02,  3.76593992e-02,  6.34730086e-02, ...,
          -4.39930409e-02, -4.81942482e-02,  3.92314009e-02],
         [ 2.71575134e-02,  4.73020487e-02, -4.33926247e-02, ...,
           6.15772344e-02, -1.37553308e-02,  9.69355926e-02],
         ...,
         [-4.27462384e-02,  1.94978509e-02,  5.09893112e-02, ...,
           1.67727433e-02, -1.83983753e-03,  9.06502530e-02],
         [ 7.01265484e-02,  9.75877978e-03, -7.16800988e-02, ...,
           3.51306684e-02, -5.01167476e-02, -7.76106492e-02],
         [ 2.94581056e-02, -6.58838153e-02, -1.07292784e-02, ...,
          -7.40154535e-02, -6.47469163e-02,  6.08037077e-02]],

        [[ 7.13134706e-02, -3.19152102e-02,  5.73246814e-02, ...,
          -7.59355202e-02, -3.49882729e-02,  7.40272626e-02],
         [ 4.85273153e-02,  4.82792454e-03, -7.98077509e-02, ...,
          -3.53361256e-02,  8.01211149e-02, -7.49235088e-03],
         [-1.15289548e-02, -6.18763827e-02,  8.94986093e-02, ...,
          -6.78304955e-02, -8.34242180e-02, -5.43156452e-02],
         ...,
         [-3.70866805e-02,  4.01437934e-03,  2.14769188e-02, ...,
           4.09856215e-02,  7.80692697e-02,  5.47855794e-02],
         [ 7.18295276e-02,  9.24810693e-02, -1.40573429e-02, ...,
          -7.18691722e-02,  9.24433395e-02, -5.77706359e-02],
         [-2.28071567e-02,  1.59461144e-02,  6.87824637e-02, ...,
          -8.24790895e-02, -1.37809338e-02,  3.64319421e-02]],

        [[-4.72258441e-02,  3.94206569e-02,  1.75937098e-02, ...,
           3.89065742e-02,  1.98510159e-02,  1.34521928e-02],
         [ 5.51819168e-02, -6.78121969e-02, -2.59976592e-02, ...,
          -5.24417646e-02, -2.72085099e-03, -5.29703572e-02],
         [ 1.95857380e-02,  5.46714440e-02, -4.63798642e-02, ...,
           4.36395183e-02, -1.64614979e-03,  6.74681412e-03],
         ...,
         [ 7.26842135e-02, -2.69519333e-02, -2.37056315e-02, ...,
           1.72266234e-02,  1.89042627e-03,  1.28820888e-03],
         [-8.35690573e-02,  3.89915667e-02,  2.41650306e-02, ...,
           5.98499610e-04,  3.85106131e-02, -2.85169873e-02],
         [-6.42059222e-02, -7.62416422e-02,  5.37119918e-02, ...,
          -6.12553284e-02,  6.31066337e-02, -4.57473136e-02]]],


       [[[-4.97501483e-03, -3.52242291e-02, -7.05117211e-02, ...,
           5.48747331e-02,  2.60364991e-02,  2.21381579e-05],
         [-3.56428437e-02, -4.12164591e-02,  7.19349235e-02, ...,
           5.64955734e-02,  1.75121240e-02,  1.61590539e-02],
         [ 4.01261300e-02,  3.66384722e-02,  1.65597145e-02, ...,
           6.07131086e-02, -6.74094036e-02,  6.11152053e-02],
         ...,
         [ 4.84175049e-02, -1.79485865e-02,  2.36917250e-02, ...,
          -3.57891731e-02,  7.61691760e-03, -7.04386532e-02],
         [ 1.74641926e-02, -2.15887744e-02,  3.35096531e-02, ...,
           4.86469232e-02, -5.74480370e-02, -7.16445744e-02],
         [ 7.90829435e-02,  3.43539938e-02, -4.75654472e-03, ...,
           7.39461556e-02,  9.04117897e-03, -2.72640027e-02]],

        [[-3.05255968e-02,  1.54185388e-02,  1.76185258e-02, ...,
           1.02485558e-02,  4.46433648e-02,  7.36539140e-02],
         [-6.18234687e-02,  5.74565418e-02, -3.45336497e-02, ...,
          -1.06815830e-01, -5.00477925e-02,  4.57736962e-02],
         [ 1.96575001e-02, -1.68720912e-02, -1.20706828e-02, ...,
           7.71495653e-03, -3.20754461e-02, -2.10398585e-02],
         ...,
         [ 1.76673084e-02,  2.14398764e-02, -3.71151417e-02, ...,
          -5.89475147e-02, -1.15017546e-02, -3.10159568e-02],
         [-7.55497301e-03, -9.53557901e-03,  2.82094143e-02, ...,
           8.37294087e-02, -7.04650730e-02,  6.23345859e-02],
         [ 7.49842972e-02, -3.58448885e-02,  6.21827655e-02, ...,
           5.98864816e-02,  4.53924797e-02,  8.13695639e-02]],

        [[-5.74623756e-02,  4.89967540e-02, -5.20199202e-02, ...,
           3.65476273e-02,  2.26337984e-02, -6.59145489e-02],
         [-1.45046404e-04,  8.40908438e-02,  3.92677933e-02, ...,
           3.50658260e-02,  3.77901248e-03,  7.62984976e-02],
         [ 4.50188220e-02,  4.04707193e-02,  9.43671688e-02, ...,
          -5.59043698e-02,  7.84817189e-02, -2.75608227e-02],
         ...,
         [-6.76555410e-02,  5.11052758e-02, -1.02633014e-02, ...,
           3.44728641e-02,  3.95071842e-02,  5.65804951e-02],
         [-3.65839154e-02, -4.65333760e-02,  1.43649578e-02, ...,
           7.08731711e-02, -3.79812643e-02,  1.76975282e-03],
         [-4.96257916e-02, -4.15769704e-02, -4.58538067e-03, ...,
          -3.64314951e-02,  4.98424433e-02, -1.62542462e-02]]]],
      dtype=float32), array([ 0.00584701,  0.00214319, -0.0008689 ,  0.00982464,  0.00115393,
        0.01105424,  0.00248627,  0.00414922,  0.01173407,  0.00695241,
        0.00314021,  0.00798877,  0.00765012,  0.00396856,  0.00797928,
        0.00922484,  0.00815893,  0.00851683,  0.00626699,  0.0023433 ,
        0.00809996,  0.00834313,  0.00329034,  0.00946409,  0.00192586,
        0.00483727,  0.00441108,  0.00780261,  0.00628377,  0.00402677,
        0.00559713,  0.00795479, -0.0042645 ,  0.00908784,  0.00531484,
        0.00557171,  0.00666498, -0.00452479,  0.01291768,  0.0052448 ,
        0.01137673,  0.00509575,  0.00428301,  0.00742416,  0.00165016,
        0.00297346,  0.00884908,  0.00358974,  0.0072609 ,  0.00580045,
        0.00662426,  0.00072898,  0.00050625,  0.01047278,  0.01395757,
        0.00755054,  0.00646788, -0.00406011,  0.00969889,  0.00803569,
        0.00103996,  0.00729451,  0.00365025, -0.00195421], dtype=float32), array([1.0164181, 1.0149951, 1.0174868, 1.0185318, 0.9998956, 1.0212036,
       1.0160779, 1.0191692, 1.0186067, 1.0185266, 1.0137229, 1.0147868,
       1.0184641, 1.0217246, 1.024637 , 1.0307548, 1.0150548, 1.0254437,
       1.0295742, 1.0187519, 1.03198  , 1.0212951, 1.0185531, 1.0243515,
       1.0153297, 1.0151769, 1.0257372, 1.0245644, 1.0141209, 1.0209891,
       1.0264981, 1.0250909, 1.0118768, 1.0269244, 1.0205066, 1.0318743,
       1.0140314, 1.0286245, 1.0240397, 1.0179613, 1.0325414, 1.0230783,
       1.0214934, 1.0153226, 1.0192338, 1.0195345, 1.0181633, 1.0160094,
       1.0307047, 1.0132681, 1.0108672, 1.0204319, 1.0176938, 1.0236208,
       1.0227723, 1.0190079, 1.016892 , 1.0177422, 1.0322636, 1.0190791,
       1.0183644, 1.022006 , 1.0179201, 1.0134308], dtype=float32), array([ 0.00092522, -0.00269918, -0.0050862 , -0.00054482,  0.00270035,
        0.0039433 ,  0.00298766,  0.00551891,  0.00681613,  0.00526667,
        0.00160347,  0.00895128,  0.00118059, -0.00779028,  0.00764418,
        0.00627876,  0.00146159,  0.00324109, -0.00772678, -0.00051907,
       -0.00083458,  0.00079295, -0.00158656,  0.00337158, -0.00300408,
       -0.00087734,  0.00270965,  0.0067629 ,  0.00399183, -0.00075895,
       -0.00295777,  0.00101794, -0.00951154,  0.00219246, -0.00483328,
       -0.00103127,  0.00487352, -0.00596711,  0.00714767,  0.00353687,
        0.00082129,  0.00366049, -0.00160696,  0.0055651 ,  0.00198141,
       -0.00264165, -0.00090202,  0.00210857, -0.00150931,  0.00553777,
        0.00516512, -0.00966417, -0.00113192,  0.00078706,  0.00429429,
        0.00119726,  0.00342233, -0.00299055, -0.00082094,  0.00179733,
       -0.00597125, -0.00160335,  0.0032635 , -0.00747757], dtype=float32), array([0., 0., 0., 0., 0., 0., 0., 0., 0., 0., 0., 0., 0., 0., 0., 0., 0.,
       0., 0., 0., 0., 0., 0., 0., 0., 0., 0., 0., 0., 0., 0., 0., 0., 0.,
       0., 0., 0., 0., 0., 0., 0., 0., 0., 0., 0., 0., 0., 0., 0., 0., 0.,
       0., 0., 0., 0., 0., 0., 0., 0., 0., 0., 0., 0., 0.], dtype=float32), array([1., 1., 1., 1., 1., 1., 1., 1., 1., 1., 1., 1., 1., 1., 1., 1., 1.,
       1., 1., 1., 1., 1., 1., 1., 1., 1., 1., 1., 1., 1., 1., 1., 1., 1.,
       1., 1., 1., 1., 1., 1., 1., 1., 1., 1., 1., 1., 1., 1., 1., 1., 1.,
       1., 1., 1., 1., 1., 1., 1., 1., 1., 1., 1., 1., 1.], dtype=float32), array([[[[ 0.06488083,  0.04087711, -0.04488289, ..., -0.05972375,
           0.06980991,  0.05977773],
         [ 0.06033305, -0.03495795,  0.00859349, ..., -0.01310308,
          -0.01581755, -0.06503759],
         [ 0.01895505, -0.00483949,  0.02600102, ...,  0.07445827,
          -0.00918886,  0.03350018],
         ...,
         [-0.00623726, -0.01412771,  0.04315576, ...,  0.06820555,
           0.04430325, -0.03262827],
         [ 0.00795227,  0.07154386,  0.08118047, ...,  0.00885953,
           0.06991914,  0.04210719],
         [ 0.0423544 ,  0.07290173,  0.03984839, ..., -0.04759284,
           0.06751589,  0.02323443]],

        [[ 0.00931727,  0.00851632, -0.009623  , ...,  0.02657958,
          -0.00888149, -0.07142611],
         [ 0.06003127, -0.01136131, -0.0586191 , ..., -0.013643  ,
           0.04243709, -0.05176151],
         [-0.05832788, -0.01797163, -0.01047757, ...,  0.00412252,
          -0.04849745, -0.06006774],
         ...,
         [-0.05029542,  0.02093127, -0.06178435, ...,  0.0374289 ,
          -0.02368804, -0.01972175],
         [-0.02554381, -0.01163824, -0.03351318, ...,  0.03513654,
           0.01311335,  0.05319487],
         [-0.04160904,  0.0551798 ,  0.04099529, ...,  0.04999164,
          -0.07363965,  0.05088812]],

        [[-0.02980772,  0.05158707, -0.02874904, ..., -0.00581052,
           0.03822321,  0.05918872],
         [-0.06432163, -0.01043891, -0.02579151, ..., -0.05510039,
           0.03592681, -0.00693168],
         [ 0.04646531, -0.01654157, -0.06432804, ...,  0.04836974,
           0.0008539 , -0.01843777],
         ...,
         [-0.00991861, -0.05887758,  0.04349612, ...,  0.07914384,
           0.02107788, -0.05477451],
         [ 0.07630033, -0.02225205, -0.0073764 , ...,  0.03675124,
          -0.04788054, -0.03196254],
         [ 0.04025081, -0.00419385, -0.01463045, ..., -0.01355818,
          -0.00551298, -0.0152014 ]]],


       [[[-0.04367188, -0.05262705, -0.06258105, ..., -0.04990283,
          -0.01115181, -0.01435138],
         [-0.0157363 ,  0.04182736, -0.04223882, ..., -0.00283396,
           0.00661266, -0.05913093],
         [ 0.01593296, -0.02327912,  0.05359102, ...,  0.03428983,
           0.06719816, -0.07352667],
         ...,
         [ 0.0248897 , -0.00935424,  0.05781702, ..., -0.06115382,
          -0.01160917,  0.04115372],
         [ 0.05540418, -0.06182655,  0.05800615, ..., -0.01602123,
           0.00497115, -0.06631836],
         [ 0.04997587,  0.00162707, -0.05071587, ..., -0.03653536,
          -0.0630429 ,  0.03630246]],

        [[-0.01369612,  0.01062833, -0.03616265, ..., -0.0101607 ,
           0.01065833,  0.03685585],
         [-0.05919564, -0.01917178,  0.04667908, ..., -0.04293263,
          -0.00773034,  0.05361603],
         [-0.03442695, -0.00898225,  0.0399598 , ...,  0.03831043,
          -0.02607939, -0.05363565],
         ...,
         [-0.04370598,  0.02896612,  0.00134372, ...,  0.04038408,
           0.05279838,  0.01480085],
         [-0.05403174,  0.02121576,  0.04229367, ...,  0.03324792,
           0.03464887, -0.01314627],
         [ 0.00402874, -0.03107129,  0.02070411, ...,  0.05437521,
          -0.04165241, -0.06695072]],

        [[ 0.04505122, -0.02495017, -0.01526638, ...,  0.06489839,
           0.04924892,  0.00374868],
         [ 0.04451898,  0.01646014, -0.03952016, ...,  0.00056901,
          -0.03989604, -0.05575124],
         [-0.03384986,  0.04353277,  0.05811357, ..., -0.02125093,
          -0.06417111, -0.00970314],
         ...,
         [-0.0001963 ,  0.00397982,  0.03930438, ...,  0.06756936,
           0.06188724,  0.04745144],
         [-0.02920353,  0.06004663, -0.05451408, ...,  0.03300266,
          -0.05084653,  0.0615375 ],
         [-0.05050144,  0.00310814, -0.0523794 , ..., -0.00560769,
           0.0697379 ,  0.01768627]]],


       [[[ 0.0215886 ,  0.00976084, -0.01542449, ..., -0.03673982,
          -0.06902909, -0.02080946],
         [-0.02243884,  0.06596514,  0.020185  , ..., -0.03247431,
           0.01862533,  0.04130984],
         [ 0.04998956, -0.0249789 ,  0.01712656, ...,  0.06156978,
          -0.0149035 ,  0.00976802],
         ...,
         [-0.00782102,  0.01882892,  0.01249269, ..., -0.05761509,
           0.00024312, -0.04618083],
         [ 0.04105366,  0.01878863, -0.06081376, ...,  0.00913844,
           0.02725049, -0.0213185 ],
         [-0.07195181, -0.00169206, -0.01918849, ...,  0.04350181,
           0.02647701, -0.07002861]],

        [[ 0.0630697 , -0.03933796,  0.0632193 , ...,  0.04593641,
           0.00440563,  0.01386132],
         [ 0.05778821, -0.004074  , -0.05108335, ...,  0.02739034,
          -0.08155467,  0.00315187],
         [-0.05169051,  0.0677859 ,  0.02463625, ..., -0.03635757,
           0.00839741,  0.02469844],
         ...,
         [ 0.04619224, -0.04623071,  0.02326719, ...,  0.01543614,
           0.0250124 , -0.00349243],
         [ 0.02094811,  0.00085794, -0.01730323, ...,  0.06511153,
          -0.01905168,  0.05538288],
         [ 0.04457489,  0.05639693, -0.00281123, ...,  0.0121514 ,
          -0.01183939, -0.01950066]],

        [[ 0.05033638, -0.03280063, -0.01923116, ...,  0.04374018,
          -0.04101355,  0.05378373],
         [ 0.01366347, -0.04325532, -0.03923174, ...,  0.04346253,
           0.0693504 ,  0.05725928],
         [ 0.03124059, -0.02597122, -0.03954614, ...,  0.00299587,
          -0.07009113,  0.03839059],
         ...,
         [ 0.05745012, -0.01855226, -0.03339737, ...,  0.01602874,
           0.02765215, -0.06504004],
         [ 0.05792855,  0.07492656,  0.04985795, ..., -0.03161275,
           0.01102312,  0.00159551],
         [-0.01612238,  0.02101845,  0.01846155, ...,  0.00933493,
          -0.0176613 ,  0.02416736]]]], dtype=float32), array([ 7.9536745e-03, -2.1741320e-03,  6.2813996e-03,  1.0878567e-03,
        3.3401479e-03,  3.2532974e-03,  3.9439616e-03, -4.6826599e-04,
       -1.8914996e-03,  4.3046209e-03,  7.5908988e-03,  5.1465887e-03,
        4.6513705e-03, -3.9469083e-03,  6.0594846e-03, -9.1732218e-05,
        6.2671938e-04,  5.1072156e-03,  9.5456913e-03,  6.5056621e-03,
        7.6094107e-03,  4.2123632e-03,  3.9416701e-03,  4.4475505e-03,
        2.7575176e-03,  5.2060713e-03,  6.8989596e-03,  3.4037880e-03,
       -1.5203981e-03,  3.2429530e-03,  7.1334546e-03,  5.4847426e-03,
        9.6526537e-03,  1.8462754e-03,  4.4471552e-03,  6.4125058e-04,
        6.0880370e-04,  8.0363788e-03,  3.0600433e-03, -5.9698639e-04,
       -9.1897580e-04,  2.1879678e-03, -7.1377704e-05,  5.6913975e-03,
        6.3626585e-03,  3.8206298e-03,  4.6097147e-03,  1.7200909e-03,
        7.9297560e-04,  5.1901769e-03,  3.1900569e-03,  6.4243716e-03,
        1.7590896e-04,  1.0203576e-02,  6.0321065e-04,  4.0020980e-03,
        1.8163933e-03,  1.0700736e-02, -8.6156739e-04,  1.3882754e-04,
        4.8374217e-03, -4.5031213e-04,  2.0194105e-03,  4.5923349e-03],
      dtype=float32), array([1.0193977, 1.0091975, 1.0304694, 1.0128531, 1.0105304, 1.0229576,
       1.0143132, 1.0167204, 1.0173852, 1.0137928, 1.0133069, 1.0163379,
       1.0203882, 1.0153503, 1.0167394, 1.0160778, 1.0193604, 1.020296 ,
       1.0213324, 1.0168505, 1.0186129, 1.0199715, 1.0194875, 1.0187685,
       1.0149292, 1.020967 , 1.0147862, 1.0213593, 1.0107062, 1.0152981,
       1.0182637, 1.0303483, 1.0191444, 1.0161277, 1.013678 , 1.0157225,
       1.0209032, 1.0228881, 1.011234 , 1.0142112, 1.0179788, 1.0244215,
       1.0156746, 1.0109464, 1.024311 , 1.0139012, 1.023577 , 1.0134637,
       1.0258813, 1.0148456, 1.0139443, 1.0164461, 1.0142955, 1.0204494,
       1.0149721, 1.0173348, 1.0176834, 1.0180035, 1.0163912, 1.020348 ,
       1.0138733, 1.0118316, 1.0211236, 1.0135876], dtype=float32), array([-2.6244059e-05, -4.5430847e-03,  1.5465253e-03,  9.5911458e-04,
       -3.3575909e-03,  1.4875872e-03,  6.7588629e-04, -2.4522906e-03,
       -2.9866353e-03,  2.2641316e-03, -8.6169899e-04,  3.4904848e-03,
        2.8743132e-04, -6.4844782e-03,  4.0275804e-03, -5.2846703e-03,
       -4.4542411e-03,  7.7086041e-04,  3.6842169e-03,  4.7490108e-03,
        2.6569292e-03, -3.0450528e-03,  8.3475903e-04,  5.9498241e-03,
       -1.1406781e-03, -5.1251519e-03,  2.3836361e-03,  5.8265909e-04,
       -2.2750597e-03,  3.8424891e-04,  2.9572138e-05, -6.0226652e-03,
       -2.8042463e-03,  2.2251272e-04,  5.4262965e-03, -2.7285411e-03,
       -5.8280574e-03,  3.9680800e-03,  3.0345048e-04, -3.0198919e-03,
       -5.7021352e-03, -5.9879539e-03, -8.3685694e-03,  5.0855288e-03,
        5.5033923e-03,  6.1806822e-03,  5.0828080e-03, -6.0751406e-04,
       -3.5558701e-03,  8.9474069e-04,  3.6481221e-03, -3.9470324e-05,
       -4.3657315e-03,  3.2140589e-03, -1.4679179e-03,  2.0204021e-03,
       -7.0028601e-04,  5.4436689e-03, -6.8290099e-03, -4.8746136e-03,
        3.7829131e-03, -1.8680543e-03, -1.2467722e-03,  6.5247351e-03],
      dtype=float32), array([0., 0., 0., 0., 0., 0., 0., 0., 0., 0., 0., 0., 0., 0., 0., 0., 0.,
       0., 0., 0., 0., 0., 0., 0., 0., 0., 0., 0., 0., 0., 0., 0., 0., 0.,
       0., 0., 0., 0., 0., 0., 0., 0., 0., 0., 0., 0., 0., 0., 0., 0., 0.,
       0., 0., 0., 0., 0., 0., 0., 0., 0., 0., 0., 0., 0.], dtype=float32), array([1., 1., 1., 1., 1., 1., 1., 1., 1., 1., 1., 1., 1., 1., 1., 1., 1.,
       1., 1., 1., 1., 1., 1., 1., 1., 1., 1., 1., 1., 1., 1., 1., 1., 1.,
       1., 1., 1., 1., 1., 1., 1., 1., 1., 1., 1., 1., 1., 1., 1., 1., 1.,
       1., 1., 1., 1., 1., 1., 1., 1., 1., 1., 1., 1., 1.], dtype=float32), array([[[[-5.5490002e-02,  1.5415470e-02,  1.4820322e-02, ...,
           2.2485714e-02,  2.3636380e-02,  2.1080986e-02],
         [ 6.1070841e-02, -1.4846868e-04, -9.1841882e-03, ...,
           7.5304359e-02,  1.3318832e-04, -4.6789780e-02],
         [-7.8272913e-03, -5.9304811e-02, -5.3862639e-02, ...,
           2.1804111e-02, -1.9927951e-02,  2.4129137e-02],
         ...,
         [-1.1275084e-03,  1.2251613e-02,  7.8202253e-03, ...,
           6.3683763e-02,  4.9214263e-02,  7.5044647e-02],
         [ 4.7527887e-02, -1.5244827e-02, -4.8450932e-02, ...,
           2.5463372e-02,  4.1611664e-02,  7.4841431e-03],
         [ 1.4732461e-02,  3.8329086e-03,  1.5951855e-02, ...,
          -3.6121156e-02, -2.4461906e-02,  5.7371955e-02]],

        [[-2.6468268e-02,  1.5830299e-03, -8.6898237e-02, ...,
          -6.7271747e-02,  6.9335510e-04,  5.5870060e-02],
         [-5.7213210e-02, -7.3289394e-02, -5.8584221e-02, ...,
           6.9474824e-02, -2.9456316e-02,  5.0782748e-02],
         [-3.0275609e-02, -3.9316293e-02,  6.8755068e-02, ...,
           3.7653267e-02,  2.8464252e-02,  8.8416636e-03],
         ...,
         [ 5.6316778e-02,  4.8142627e-02,  2.0528706e-02, ...,
           8.1454627e-03,  1.8913707e-02,  4.5635954e-02],
         [-5.9859704e-02, -8.0529444e-02, -3.5554625e-02, ...,
           4.9157053e-02, -6.3540861e-02,  2.8824955e-02],
         [ 6.9765411e-02, -5.0407205e-02,  2.1647135e-02, ...,
          -5.3488243e-02,  1.4931303e-02,  4.8883393e-02]],

        [[-7.1666710e-02, -4.8895865e-03,  2.3901885e-02, ...,
           2.2973672e-02, -2.8530506e-02, -2.5698952e-02],
         [ 4.3556891e-02,  2.4777085e-03,  2.9601397e-02, ...,
           1.9077113e-02,  1.8443681e-02,  1.2611966e-02],
         [-6.0731001e-02, -1.7171450e-03,  2.7994893e-02, ...,
          -9.0234692e-04,  1.8786017e-02, -4.6006937e-02],
         ...,
         [-6.3530497e-02,  3.2787735e-03, -6.6515081e-02, ...,
           2.8025476e-02,  5.1065080e-02,  5.5317029e-02],
         [-1.1620301e-02,  3.5718393e-02,  1.3666682e-02, ...,
           7.0736773e-02,  4.5713447e-02, -2.1253083e-02],
         [ 4.2181876e-02,  4.8745897e-02,  6.7643136e-02, ...,
           5.6988164e-03, -5.5710245e-02,  1.4608510e-02]]],


       [[[ 1.5741849e-02,  2.5908066e-02, -8.3586499e-03, ...,
           3.6778454e-02, -2.1587446e-02,  4.2709485e-02],
         [ 9.4633540e-03, -3.5240721e-02,  2.9430537e-02, ...,
           5.1933900e-02,  7.0339893e-03,  1.1318138e-02],
         [ 1.0803030e-02, -7.0503056e-02, -6.7952350e-02, ...,
          -5.8677666e-02, -4.6499252e-02, -7.0311867e-02],
         ...,
         [-3.4036707e-02, -1.6096297e-03,  4.9684271e-02, ...,
           7.1254984e-02, -6.3364469e-02,  4.4690665e-02],
         [-4.8669737e-02, -7.5066298e-02, -3.1805441e-02, ...,
          -4.8746821e-02, -4.6438631e-02, -5.7937097e-02],
         [-2.0531809e-02,  5.0263688e-02,  1.6613921e-02, ...,
          -1.0332812e-03, -5.3524312e-02, -6.5014355e-02]],

        [[ 6.1964840e-02,  4.6900835e-02, -5.4795757e-02, ...,
          -2.8711356e-02, -2.7006168e-02, -3.7965205e-02],
         [-2.8472705e-02, -1.0836690e-02, -1.1399004e-02, ...,
           6.1395712e-02,  2.8744593e-02,  5.2735362e-02],
         [ 1.7762659e-02, -1.8854266e-02, -4.0909816e-02, ...,
           3.0045610e-02,  6.4909630e-02,  6.3250080e-02],
         ...,
         [ 6.5385997e-02, -6.5370686e-02,  3.7575468e-02, ...,
           5.5326503e-02,  2.5907783e-02,  6.3515976e-03],
         [ 7.8339778e-02,  8.1146091e-02, -4.4547275e-02, ...,
           1.1354469e-02, -3.3956148e-02,  1.1829891e-03],
         [-2.6808932e-02,  4.9901556e-02,  9.1485679e-04, ...,
           3.7456173e-02, -4.4652522e-02, -5.8909584e-02]],

        [[-7.7635191e-02,  6.0329810e-02, -1.6043803e-03, ...,
          -1.2965384e-02,  2.9382897e-03,  8.2301483e-02],
         [ 3.3021878e-02, -1.4815744e-02,  1.8399496e-02, ...,
           6.0916446e-02,  7.7119701e-02,  4.7889803e-02],
         [-2.6913602e-02,  5.9037603e-02,  4.4000015e-02, ...,
          -5.1420536e-02,  5.5951398e-02,  7.9014683e-03],
         ...,
         [ 6.5618001e-02,  4.7101215e-02,  2.1321578e-02, ...,
           2.9763917e-02,  2.5763836e-02,  5.6684511e-03],
         [ 5.8483358e-02,  5.4382559e-02,  5.9116885e-02, ...,
          -5.0555941e-02, -7.4375853e-02, -6.0849231e-02],
         [ 5.2982010e-02, -4.0730163e-02,  6.5012373e-02, ...,
           6.5825857e-02, -1.3407592e-02, -3.9129864e-02]]],


       [[[ 4.4874273e-02, -7.1763895e-02,  5.4142877e-02, ...,
           5.4979485e-02,  1.3962927e-02,  5.5874355e-02],
         [ 1.3918181e-02,  4.5077387e-02,  1.5689123e-02, ...,
          -5.4953288e-02, -5.9463196e-02, -5.5811446e-02],
         [ 4.0202574e-03, -6.2165968e-02,  5.2007813e-02, ...,
          -1.2296165e-02, -1.9294931e-02,  1.5861021e-02],
         ...,
         [ 2.7940521e-02, -1.3289232e-02, -2.0967698e-02, ...,
           5.1184006e-02, -5.8403686e-03, -6.1671641e-02],
         [-7.4346676e-02, -8.6233631e-02,  1.4387720e-02, ...,
           2.2923816e-02,  6.7782559e-02,  3.5358064e-02],
         [-2.5741363e-02,  1.5523096e-02, -1.1061784e-03, ...,
           2.1270102e-02,  5.6802128e-02, -1.5323161e-02]],

        [[-3.5026088e-02, -2.7146624e-02,  2.4471211e-04, ...,
          -2.4159258e-02,  7.0896402e-02, -6.5836590e-05],
         [-1.7086612e-02, -3.7035123e-02,  1.1662210e-02, ...,
           6.3853703e-02,  4.2865518e-02,  4.4916157e-02],
         [-3.3920441e-02, -5.9038881e-02,  2.9430870e-02, ...,
           6.9526453e-03, -6.9229558e-02, -6.8354540e-02],
         ...,
         [-3.0150093e-02,  3.4400009e-02, -4.8505094e-02, ...,
           4.9240626e-03, -4.6615206e-02, -1.0649813e-03],
         [-4.0926922e-02, -2.7872879e-02,  2.2033339e-02, ...,
           1.8755671e-02, -4.1423570e-02,  4.9651384e-02],
         [ 3.0306999e-02,  1.6691970e-02, -4.0441070e-02, ...,
           6.8501579e-03,  5.6170169e-02, -2.8477229e-02]],

        [[ 5.7358176e-02, -9.8151490e-03, -1.0336723e-02, ...,
           8.6212782e-03,  7.8631379e-03,  3.4161799e-02],
         [ 3.2633603e-02,  3.8205352e-02, -6.3807152e-02, ...,
           6.8765312e-02, -5.8214929e-02, -6.4904012e-02],
         [-4.7638319e-02,  7.7432312e-02,  3.0133838e-02, ...,
           2.0290965e-02,  5.2394297e-02, -2.9502947e-02],
         ...,
         [ 5.0385620e-02, -5.6660205e-02,  2.0773029e-02, ...,
           7.3833358e-03, -6.0911652e-02, -7.1429729e-02],
         [-2.0944171e-02, -2.4200909e-02, -1.4348075e-02, ...,
           6.7049168e-02,  3.7455276e-02,  2.9525032e-02],
         [-4.0870849e-02,  1.0301310e-02,  3.2463536e-02, ...,
           2.1195054e-02,  5.9435144e-02, -1.6406966e-02]]]],
      dtype=float32), array([ 4.3296912e-03,  3.9179414e-03,  4.7302465e-03,  6.7269937e-03,
        5.1161102e-03,  1.1989455e-03,  2.4917668e-03, -4.6866699e-06,
        8.5489603e-04,  3.4447100e-03, -7.0321141e-04,  4.5139757e-03,
        8.8144059e-04,  3.3269308e-03,  4.6872371e-03,  1.2320955e-03,
       -1.5965056e-03,  2.4500224e-03,  4.6990938e-03,  5.1811710e-03,
       -1.6591983e-03,  1.0070240e-03,  8.3776913e-04, -1.0954386e-03,
        4.6015263e-04, -2.6277832e-03, -1.0948324e-03,  1.3614973e-03,
        2.2714694e-03,  5.4344814e-03,  1.3238654e-03,  4.9676583e-04,
       -2.5358982e-03,  1.2308124e-03,  2.2005555e-03, -1.8365870e-03,
       -4.1141934e-03, -7.5675591e-05,  2.9865520e-03,  5.4392563e-03,
        1.7469651e-03, -4.5079470e-04,  2.2715628e-03, -1.8246364e-04,
        4.3726959e-03,  3.5912562e-03,  6.0598231e-03, -2.0942825e-04,
        5.8984605e-04,  2.5658155e-04,  4.6187397e-03,  4.2699790e-03,
        2.4843009e-03,  9.0039097e-04, -1.9081854e-03,  4.7375872e-03,
        8.0852531e-04,  3.3795126e-03, -3.7541173e-03,  2.2847943e-03,
        4.1466337e-03, -2.6609015e-03,  2.3817848e-03,  4.2994600e-03],
      dtype=float32), array([1.0174186, 1.0144565, 1.0158713, 1.0238482, 1.0172882, 1.0160205,
       1.0094752, 1.0185094, 1.0127791, 1.0094181, 1.0174166, 1.0223404,
       1.0119623, 1.0157614, 1.0156404, 1.0135739, 1.0131078, 1.0254813,
       1.0178117, 1.0154549, 1.0117055, 1.0100368, 1.0119069, 1.013348 ,
       1.0146898, 1.008358 , 1.0100824, 1.015211 , 1.0122137, 1.0201715,
       1.0152224, 1.0064083, 1.0098052, 1.0218283, 1.005983 , 1.0149058,
       1.0149279, 1.0103415, 1.0124811, 1.0287994, 1.016861 , 1.00713  ,
       1.0150867, 1.0084559, 1.0120744, 1.0288055, 1.0213972, 1.0103092,
       1.0126472, 1.0193914, 1.0190705, 1.0179939, 1.0126873, 1.0142986,
       1.0118619, 1.0170504, 1.0188317, 1.0235342, 1.0101877, 1.0108677,
       1.0187281, 1.009541 , 1.0151868, 1.0104402], dtype=float32), array([ 1.7786300e-03,  4.3020197e-03,  1.8455043e-03, -1.4909791e-03,
        4.0288107e-03, -2.5669800e-05,  1.9921560e-04, -2.3065393e-03,
       -3.1787974e-03,  3.0884980e-03, -2.0137352e-03, -3.4736069e-03,
        8.3461724e-04,  2.8735106e-03,  4.3646786e-03, -2.0814668e-03,
       -2.3067556e-03, -4.7152154e-03,  2.2470094e-03,  2.5369688e-03,
       -3.0301393e-03, -2.8782357e-03, -2.0076069e-03, -1.8660413e-03,
       -4.1451480e-04, -2.8602700e-03, -3.2886774e-03, -5.7939591e-04,
       -5.8111674e-03,  2.8024684e-03,  2.2052196e-04, -2.7179212e-04,
       -2.5184972e-03, -3.1837139e-03,  2.4116044e-03, -6.0898089e-03,
       -4.4177305e-03, -1.7699159e-03,  1.3772654e-03, -1.6625434e-03,
       -5.9216970e-04, -7.9883396e-04,  2.1068207e-03, -1.4718062e-03,
        3.5657091e-03,  9.6915261e-04,  1.6061749e-03, -5.7969519e-05,
       -2.9412780e-03,  1.0353529e-04,  1.3048890e-03,  3.5607403e-03,
        2.4875335e-03, -1.2476082e-03, -2.3709408e-03,  9.5036073e-04,
       -1.3659132e-03, -2.1415690e-03, -3.8656306e-03,  1.5686853e-03,
        2.4686189e-04, -4.1102627e-03, -5.0862972e-03,  3.4098318e-03],
      dtype=float32), array([0., 0., 0., 0., 0., 0., 0., 0., 0., 0., 0., 0., 0., 0., 0., 0., 0.,
       0., 0., 0., 0., 0., 0., 0., 0., 0., 0., 0., 0., 0., 0., 0., 0., 0.,
       0., 0., 0., 0., 0., 0., 0., 0., 0., 0., 0., 0., 0., 0., 0., 0., 0.,
       0., 0., 0., 0., 0., 0., 0., 0., 0., 0., 0., 0., 0.], dtype=float32), array([1., 1., 1., 1., 1., 1., 1., 1., 1., 1., 1., 1., 1., 1., 1., 1., 1.,
       1., 1., 1., 1., 1., 1., 1., 1., 1., 1., 1., 1., 1., 1., 1., 1., 1.,
       1., 1., 1., 1., 1., 1., 1., 1., 1., 1., 1., 1., 1., 1., 1., 1., 1.,
       1., 1., 1., 1., 1., 1., 1., 1., 1., 1., 1., 1., 1.], dtype=float32), array([[-0.0527382 , -0.0233146 , -0.04996039, ..., -0.0010607 ,
        -0.01399926, -0.07280864],
       [ 0.00484247, -0.07971969, -0.00950882, ...,  0.09391928,
         0.07819422,  0.00144802],
       [-0.01769311,  0.00379681, -0.07251971, ...,  0.07141257,
         0.03955453,  0.04148459],
       ...,
       [ 0.03458937, -0.03602926, -0.07042558, ..., -0.05516652,
        -0.01492255,  0.0632816 ],
       [-0.03822584,  0.05871538,  0.00586152, ...,  0.02903323,
        -0.06686488, -0.01464429],
       [ 0.04305214, -0.06505185, -0.06620737, ...,  0.05369554,
         0.00736891, -0.02817843]], dtype=float32), array([-1.03181764e-03, -1.76491635e-03,  1.40911783e-03,  2.74472102e-03,
        1.67204347e-03,  7.25899008e-04, -1.18283625e-03,  1.16969727e-03,
       -3.12862132e-04,  3.31031601e-03, -1.18652545e-03,  2.53070798e-03,
       -3.99243581e-04,  3.88266006e-03,  3.15156998e-03,  1.05633039e-03,
       -2.22368166e-03,  5.01251430e-04,  5.42384386e-03, -9.96654504e-04,
        7.81547104e-04, -7.72730564e-04,  2.51286104e-03, -1.63271627e-03,
        3.23010981e-03, -6.72248250e-04, -2.35425914e-03,  2.40148729e-04,
        2.09591514e-03,  3.22436448e-03, -4.73098393e-04,  5.18286601e-03,
        4.18444909e-03, -9.20844788e-04,  3.85504030e-03, -1.52338529e-03,
       -3.94411676e-04,  2.70935852e-04,  3.86654935e-03,  0.00000000e+00,
        0.00000000e+00, -4.74485569e-04, -1.26722630e-03, -2.14215112e-03,
        1.08596050e-05,  2.69429060e-03,  2.48193811e-03, -7.56869995e-05,
       -1.27571670e-03,  1.93361053e-03, -1.31974509e-03,  2.09172722e-03,
       -3.80578008e-03, -4.28583327e-04,  3.84404673e-03,  1.52127868e-05,
        0.00000000e+00,  2.10129656e-03, -8.93140270e-04, -7.03899714e-04,
        5.07352306e-05, -2.70048797e-04,  1.86711678e-03, -1.51458243e-03,
        1.39268977e-03, -1.10581063e-03,  1.50478270e-04,  1.39181153e-03,
       -1.49764062e-03,  3.19262384e-03,  2.15946883e-03, -1.26948452e-03,
       -1.92984386e-04, -1.93975726e-03, -1.47591415e-03,  4.85012028e-03,
       -1.51674100e-03,  2.34876783e-03,  2.14063423e-03,  2.12870049e-03,
        7.86402161e-05,  6.23410509e-04, -1.57322816e-03,  2.90681794e-03,
        3.12461448e-03, -2.01423047e-03, -5.92851313e-04, -2.67028064e-03,
        1.63559744e-03,  3.84601299e-04,  1.21448847e-05,  0.00000000e+00,
        2.48997961e-03,  0.00000000e+00, -2.16691406e-03,  0.00000000e+00,
       -1.45544310e-03,  1.05152954e-03, -4.16939256e-05, -6.30747003e-04,
       -2.00852309e-03, -1.31206645e-03, -4.96253429e-04, -1.80452334e-04,
        4.21840977e-03, -1.99664640e-03,  2.55415519e-03,  4.58528474e-03,
        4.34317766e-03,  0.00000000e+00, -2.49278801e-03,  4.15290426e-03,
       -2.45851377e-04, -1.87290355e-03, -7.12924404e-04,  0.00000000e+00,
       -6.28415088e-04,  0.00000000e+00,  1.97273633e-03,  5.05188107e-03,
        4.03235527e-03, -1.39787444e-03,  2.33854097e-03,  3.13011650e-03,
        9.37165401e-04,  3.80242080e-03,  4.61410126e-03, -1.01608617e-04,
        0.00000000e+00,  5.29063260e-03, -9.78714204e-04, -8.46755109e-04,
        3.32885014e-04,  9.48162458e-04,  1.15326908e-03, -2.04166630e-03,
        1.43617770e-04,  2.23091361e-03,  5.61998051e-04,  1.13028288e-03,
       -6.23029482e-04, -1.47407420e-03, -2.29094573e-03,  2.88014510e-03,
       -4.24892874e-04, -9.34732729e-04,  1.76164933e-04,  1.03219505e-03,
        3.84135568e-03,  1.22836349e-03,  2.70795752e-03,  1.61101890e-03,
        5.78538748e-03, -6.55998767e-04,  3.18743684e-03, -2.24798918e-03,
        7.50698615e-04,  0.00000000e+00, -7.93074374e-04,  4.72639268e-03,
       -2.37178174e-04, -1.16828771e-03,  1.18956727e-03,  3.04709282e-03,
        6.72688149e-03,  0.00000000e+00,  1.07788735e-04, -3.35059449e-04,
        0.00000000e+00, -2.44432571e-03, -5.85678557e-04,  2.41962750e-03,
        1.59930415e-03,  2.28934316e-03,  2.89685465e-03,  1.44963490e-03,
       -5.99967607e-04,  9.46957560e-04, -1.26811978e-03, -8.69872398e-04,
        4.30945819e-03,  2.41374451e-04, -7.24766636e-04,  1.74032815e-03,
        2.41895998e-03,  2.42360705e-03, -2.06752753e-04,  3.86791769e-03,
        1.06191414e-03, -7.51880929e-04, -2.29755696e-03,  4.89388779e-03,
        0.00000000e+00,  1.11255527e-03,  8.77574377e-04,  1.36634649e-03,
        2.16786517e-03, -2.62455200e-03, -1.94514031e-03, -2.84173166e-05,
        4.41408297e-03,  1.01085310e-03,  1.19660865e-04,  1.72597833e-03,
        4.60877502e-03, -2.91052216e-04,  3.18057300e-03, -2.64934707e-03,
       -1.12662569e-03,  2.55254935e-03,  2.43837159e-04, -1.34256494e-03,
        4.70496994e-03,  6.33764360e-03,  1.53376872e-03,  1.49796519e-03,
       -9.67737811e-04,  1.42323552e-03, -2.60454067e-03,  5.34091261e-04,
        1.54890085e-03, -6.91240013e-04, -1.40750851e-03,  8.84499983e-04,
       -1.47032272e-03,  2.53400905e-03,  6.34648139e-04,  5.11775084e-04,
       -1.30134181e-03,  8.05574178e-04,  2.95675592e-04,  7.54697248e-04,
        1.87668938e-05, -5.61624591e-04,  1.96396373e-03, -2.02009082e-03,
        2.99969543e-04, -4.56090813e-04,  1.47750590e-03,  6.52018655e-03,
       -2.23204657e-03, -2.83704232e-03,  3.08741303e-03,  0.00000000e+00,
        5.60915505e-04,  1.89557963e-04,  8.54108075e-04,  2.23037833e-03,
        3.35443346e-03,  2.69249594e-03,  0.00000000e+00, -4.19427291e-04,
       -1.27905188e-03,  2.24589254e-03,  5.52510843e-04,  0.00000000e+00],
      dtype=float32), array([1.0003624 , 1.0044267 , 1.013227  , 1.0114878 , 1.0090095 ,
       1.0094364 , 0.9985128 , 1.021069  , 1.0058048 , 1.0039604 ,
       1.002563  , 1.0182953 , 1.0059204 , 1.0110409 , 1.0094316 ,
       1.0095646 , 1.0095394 , 1.0123515 , 1.014758  , 1.0053983 ,
       1.0079751 , 1.0051578 , 1.0138044 , 0.99713695, 1.0102918 ,
       1.0021224 , 1.0057851 , 1.0090556 , 1.0106167 , 1.0074035 ,
       1.0151641 , 1.0092939 , 1.0099728 , 0.99952084, 1.0117439 ,
       1.003531  , 1.0031508 , 1.0169878 , 1.0142558 , 1.        ,
       1.        , 1.0124657 , 1.014326  , 0.99808437, 1.0128062 ,
       1.0114529 , 1.006428  , 1.0054348 , 1.0034466 , 1.0070091 ,
       0.9987826 , 1.0035396 , 1.0008633 , 1.0047911 , 1.0107291 ,
       1.0044241 , 1.        , 1.0096395 , 1.0069937 , 1.0065151 ,
       1.0158881 , 1.0050949 , 1.0115402 , 0.99839306, 1.0081501 ,
       1.0083711 , 1.0142529 , 1.0103122 , 0.9980881 , 1.0041423 ,
       1.012317  , 1.0080523 , 1.008789  , 1.01172   , 0.99757385,
       1.014173  , 0.9985148 , 1.0173675 , 1.0103093 , 1.0061911 ,
       1.0103424 , 1.0007943 , 0.99810153, 1.0099    , 1.0074482 ,
       0.99843204, 1.0108478 , 0.99502045, 1.0081381 , 1.0029918 ,
       1.0118219 , 1.        , 1.0127271 , 1.        , 0.9984256 ,
       1.        , 0.99812555, 1.0075246 , 0.99835503, 0.9993257 ,
       0.99873704, 1.0112867 , 0.9982377 , 1.0044792 , 1.0159988 ,
       0.9966082 , 1.0062548 , 1.0206052 , 1.0134857 , 1.        ,
       0.99829996, 1.0131658 , 1.0022379 , 0.99912125, 0.99929404,
       1.        , 1.000672  , 1.        , 0.99780834, 1.0093486 ,
       1.0122719 , 0.9968756 , 1.0077636 , 1.0146841 , 1.0043317 ,
       1.0127205 , 1.0106943 , 1.0089228 , 1.        , 1.0153818 ,
       1.0076677 , 1.0062331 , 1.0121483 , 1.0108021 , 1.0126668 ,
       1.0066615 , 1.0047042 , 1.0132062 , 1.0080335 , 1.012144  ,
       1.0145333 , 1.0045414 , 0.99716425, 1.0105532 , 1.0071905 ,
       0.9993415 , 0.9984899 , 1.0030504 , 1.0162561 , 1.0060449 ,
       1.0025953 , 1.0128434 , 1.0129106 , 1.009337  , 1.0113876 ,
       0.9964173 , 1.0051789 , 1.        , 1.0109502 , 1.0093819 ,
       1.0013138 , 0.9989918 , 1.0094689 , 1.0115405 , 1.0165584 ,
       1.        , 1.0062344 , 1.009932  , 1.        , 0.99705136,
       1.0093844 , 1.0094826 , 1.0024313 , 1.0146381 , 1.0099703 ,
       1.0071139 , 0.99944556, 1.010742  , 1.0038551 , 0.9996498 ,
       1.012668  , 1.002913  , 0.9991104 , 1.0099843 , 0.9979551 ,
       1.0153109 , 1.0126499 , 1.009793  , 1.0047585 , 0.9995375 ,
       1.0081009 , 1.0097046 , 1.        , 1.0146803 , 1.0095617 ,
       1.0101259 , 1.0084264 , 1.0087289 , 1.0084504 , 1.0056237 ,
       1.0160884 , 1.0072694 , 1.0119267 , 1.0124207 , 1.0099322 ,
       0.9998941 , 1.0187006 , 1.0045393 , 0.9988165 , 1.0163409 ,
       1.0003518 , 0.9988048 , 1.0171067 , 1.0152851 , 1.0072554 ,
       1.0133064 , 0.99851793, 1.0130045 , 1.0044273 , 1.000512  ,
       1.0145444 , 0.9981976 , 1.015843  , 1.008962  , 1.0060427 ,
       1.0149721 , 1.0114942 , 1.0092463 , 0.9989743 , 1.0112715 ,
       1.0081439 , 1.0091238 , 1.0052156 , 1.0002959 , 1.0044065 ,
       1.0073489 , 1.0075685 , 1.0161484 , 1.0061954 , 1.0137401 ,
       1.0045238 , 0.9977699 , 1.0055349 , 1.        , 1.013142  ,
       1.0094986 , 1.0079654 , 1.0118259 , 1.0147293 , 1.0108187 ,
       1.        , 0.9988462 , 1.0078632 , 1.0180429 , 1.0095656 ,
       1.        ], dtype=float32), array([-1.48739328e-03, -2.58811377e-03,  1.14309962e-03, -9.55686322e-04,
        1.70819869e-03,  1.36940667e-04, -1.74385170e-03, -1.62125123e-03,
       -2.32416345e-03,  9.70206689e-04, -1.18379784e-03, -1.23152544e-03,
       -4.08736290e-04,  8.18638364e-04,  2.31992593e-03,  3.62231192e-04,
       -2.88216397e-03,  2.15833032e-04,  1.83130451e-03, -2.76819244e-03,
       -9.46834101e-04, -7.54545734e-04, -3.43638356e-04,  1.39095332e-03,
        2.86198047e-04, -6.70252135e-04, -2.64643552e-03,  6.57611934e-04,
       -9.40260288e-05,  2.71581649e-03, -1.99407432e-03,  1.09958067e-03,
        1.06313278e-03,  2.89185817e-04,  1.74177665e-04,  2.33144929e-05,
       -3.92889517e-04, -1.84134615e-03,  1.44363250e-04, -3.32887215e-03,
       -2.03771517e-03, -1.61056826e-03, -1.37070147e-03,  1.10316079e-03,
       -2.41367123e-03, -1.48915424e-04,  1.04490120e-03, -8.27538955e-04,
       -1.28810795e-03, -5.14195301e-04, -2.60067079e-03,  2.09179125e-03,
       -3.02167283e-03, -4.25612001e-04,  4.69925726e-04, -4.83681244e-04,
       -2.49037193e-03, -7.70400366e-05, -1.55775517e-03, -7.01806217e-04,
       -1.13129371e-03,  1.14498788e-03, -3.05512338e-03, -5.22660674e-04,
       -1.23862465e-05, -1.82385580e-03, -1.74426672e-03, -6.95271243e-04,
       -8.52883677e-04,  3.39347098e-05,  6.62091537e-04, -9.16297664e-04,
        2.76918494e-04, -1.01587165e-03, -9.18652688e-04, -1.49642013e-03,
       -1.49112393e-03,  2.07314361e-03, -6.00245316e-04,  4.95733926e-04,
        1.20905148e-04,  6.25251385e-04, -6.27808506e-04,  4.90988372e-04,
        1.20653748e-03, -3.19104554e-04, -1.70643383e-03, -6.60529418e-04,
        1.85185927e-04,  3.80088371e-04, -5.61028661e-04,  1.87471055e-03,
       -1.39108743e-04,  1.38627226e-03, -1.97311258e-03, -3.23529681e-03,
       -1.60307519e-03,  5.58836153e-04,  4.70168423e-04,  1.07252609e-03,
       -3.58582591e-03, -3.47257615e-03,  2.17220956e-03, -1.83147925e-03,
       -5.32644219e-04, -1.16753590e-03,  2.20142817e-03, -5.29512181e-04,
        1.78923272e-03, -5.99232095e-04, -6.08022732e-04,  1.00068422e-03,
       -1.33164780e-04, -6.39149395e-04,  7.45490426e-04, -2.08828901e-03,
       -5.66512637e-04, -3.97799071e-04,  7.40977121e-04,  2.62216455e-03,
        2.18349486e-03, -1.46982411e-03,  1.43953960e-03,  5.13778068e-04,
       -1.22190488e-03,  2.58129160e-03,  1.70336280e-03, -1.12456142e-03,
        6.54184318e-04,  1.40305061e-03, -9.75574600e-04, -8.47424613e-04,
        5.91495715e-04, -1.53319596e-03,  3.42422456e-04, -2.03819200e-03,
        1.89067563e-04, -1.10844371e-03, -6.89914625e-04,  6.23574306e-04,
       -1.63085829e-03, -9.29844216e-04,  1.15840521e-03, -6.70408423e-04,
       -8.44873139e-04, -7.48554419e-04,  2.04106979e-03, -2.58644926e-04,
        6.17503654e-04,  1.24858716e-03, -1.46117271e-03,  1.68466897e-04,
        1.05471676e-03, -3.15216283e-04, -6.90183777e-04,  2.55862181e-03,
        7.85966928e-04,  1.15891022e-03, -2.99739884e-03,  2.86603230e-03,
        1.95521134e-04,  2.51223031e-03,  1.14358685e-04,  1.08096795e-03,
        1.58430974e-03, -2.52279569e-03, -4.09610919e-04, -1.21982815e-03,
        1.80574018e-03,  1.20497229e-04, -5.91278949e-04, -3.60132690e-04,
        1.59910833e-03, -6.17487531e-04,  2.68383953e-03,  1.55581848e-03,
        3.66196269e-04, -3.44244996e-04, -1.26607728e-03,  6.11109368e-04,
        5.33796730e-04,  2.07653828e-03, -1.00406440e-04, -2.01614411e-03,
        2.42116745e-03,  7.49873463e-04, -2.46119429e-03,  2.73685483e-03,
        1.06232055e-03,  6.13725686e-04, -2.29289220e-03,  2.83817668e-03,
       -5.77162893e-04,  3.93101182e-05, -1.55810465e-03, -8.59179883e-04,
       -6.91292982e-04, -2.26025376e-03, -1.63793378e-03, -1.39248659e-04,
        2.22536409e-03,  1.15586410e-03, -6.13460201e-04,  5.48247655e-04,
        9.87192034e-04,  3.30412365e-03, -8.34389139e-05, -2.84687500e-03,
       -1.45185809e-03,  7.26257800e-04,  7.72983185e-04,  1.89066550e-03,
        1.77111232e-03,  2.78143631e-03,  4.55074303e-04,  2.12862669e-05,
        1.43707253e-03, -7.36701884e-04, -2.17283308e-03, -1.68092526e-03,
       -7.07141589e-04, -3.76110780e-04, -2.03339127e-03, -1.30713423e-04,
       -2.03838246e-03,  1.13039068e-03, -2.51136080e-04, -2.11602222e-04,
        6.76537631e-04, -6.58610079e-04, -3.32635269e-03,  6.72114620e-05,
       -5.64941911e-06,  6.40002487e-04,  1.05205667e-03, -2.27670348e-03,
        2.36635926e-04, -1.50017056e-03,  1.38608378e-03,  1.35393196e-03,
       -1.93093054e-03,  1.84195291e-03,  7.33305584e-04, -9.64583480e-04,
        4.35583148e-04, -7.71623396e-04, -7.12618930e-04,  2.77128391e-04,
        7.13872025e-04, -2.06716987e-03,  6.39748410e-04,  1.00616005e-03,
       -1.27543148e-03, -1.73974404e-04, -1.05746894e-03, -1.01343857e-03],
      dtype=float32), array([0., 0., 0., 0., 0., 0., 0., 0., 0., 0., 0., 0., 0., 0., 0., 0., 0.,
       0., 0., 0., 0., 0., 0., 0., 0., 0., 0., 0., 0., 0., 0., 0., 0., 0.,
       0., 0., 0., 0., 0., 0., 0., 0., 0., 0., 0., 0., 0., 0., 0., 0., 0.,
       0., 0., 0., 0., 0., 0., 0., 0., 0., 0., 0., 0., 0., 0., 0., 0., 0.,
       0., 0., 0., 0., 0., 0., 0., 0., 0., 0., 0., 0., 0., 0., 0., 0., 0.,
       0., 0., 0., 0., 0., 0., 0., 0., 0., 0., 0., 0., 0., 0., 0., 0., 0.,
       0., 0., 0., 0., 0., 0., 0., 0., 0., 0., 0., 0., 0., 0., 0., 0., 0.,
       0., 0., 0., 0., 0., 0., 0., 0., 0., 0., 0., 0., 0., 0., 0., 0., 0.,
       0., 0., 0., 0., 0., 0., 0., 0., 0., 0., 0., 0., 0., 0., 0., 0., 0.,
       0., 0., 0., 0., 0., 0., 0., 0., 0., 0., 0., 0., 0., 0., 0., 0., 0.,
       0., 0., 0., 0., 0., 0., 0., 0., 0., 0., 0., 0., 0., 0., 0., 0., 0.,
       0., 0., 0., 0., 0., 0., 0., 0., 0., 0., 0., 0., 0., 0., 0., 0., 0.,
       0., 0., 0., 0., 0., 0., 0., 0., 0., 0., 0., 0., 0., 0., 0., 0., 0.,
       0., 0., 0., 0., 0., 0., 0., 0., 0., 0., 0., 0., 0., 0., 0., 0., 0.,
       0., 0., 0., 0., 0., 0., 0., 0., 0., 0., 0., 0., 0., 0., 0., 0., 0.,
       0.], dtype=float32), array([1., 1., 1., 1., 1., 1., 1., 1., 1., 1., 1., 1., 1., 1., 1., 1., 1.,
       1., 1., 1., 1., 1., 1., 1., 1., 1., 1., 1., 1., 1., 1., 1., 1., 1.,
       1., 1., 1., 1., 1., 1., 1., 1., 1., 1., 1., 1., 1., 1., 1., 1., 1.,
       1., 1., 1., 1., 1., 1., 1., 1., 1., 1., 1., 1., 1., 1., 1., 1., 1.,
       1., 1., 1., 1., 1., 1., 1., 1., 1., 1., 1., 1., 1., 1., 1., 1., 1.,
       1., 1., 1., 1., 1., 1., 1., 1., 1., 1., 1., 1., 1., 1., 1., 1., 1.,
       1., 1., 1., 1., 1., 1., 1., 1., 1., 1., 1., 1., 1., 1., 1., 1., 1.,
       1., 1., 1., 1., 1., 1., 1., 1., 1., 1., 1., 1., 1., 1., 1., 1., 1.,
       1., 1., 1., 1., 1., 1., 1., 1., 1., 1., 1., 1., 1., 1., 1., 1., 1.,
       1., 1., 1., 1., 1., 1., 1., 1., 1., 1., 1., 1., 1., 1., 1., 1., 1.,
       1., 1., 1., 1., 1., 1., 1., 1., 1., 1., 1., 1., 1., 1., 1., 1., 1.,
       1., 1., 1., 1., 1., 1., 1., 1., 1., 1., 1., 1., 1., 1., 1., 1., 1.,
       1., 1., 1., 1., 1., 1., 1., 1., 1., 1., 1., 1., 1., 1., 1., 1., 1.,
       1., 1., 1., 1., 1., 1., 1., 1., 1., 1., 1., 1., 1., 1., 1., 1., 1.,
       1., 1., 1., 1., 1., 1., 1., 1., 1., 1., 1., 1., 1., 1., 1., 1., 1.,
       1.], dtype=float32), array([[-0.13832861,  0.01480949, -0.0214852 , ..., -0.13099249,
         0.12595992, -0.09069242],
       [ 0.04485173, -0.05268471,  0.03592652, ..., -0.14944634,
         0.0911696 ,  0.088333  ],
       [ 0.00257164,  0.04522318, -0.05065133, ...,  0.10084951,
         0.00435155, -0.13816446],
       ...,
       [ 0.14255513,  0.10197079,  0.14085473, ...,  0.12673517,
         0.14269938,  0.01082778],
       [ 0.1098399 ,  0.14416951, -0.05700541, ..., -0.01160703,
         0.08776028, -0.05579397],
       [ 0.02728156, -0.05091642,  0.06712151, ..., -0.00112136,
        -0.03562258, -0.10542849]], dtype=float32), array([-9.0923003e-04,  2.4269354e-03, -4.8158306e-04, -1.9939835e-03,
       -1.3557952e-03,  1.6339361e-03,  3.1748274e-04,  1.3659589e-03,
       -1.7996865e-03,  6.8027708e-05], dtype=float32)]